digraph Tree {
node [shape=box, style="filled, rounded", color="black", fontname=helvetica] ;
edge [fontname=helvetica] ;
0 [label=<Schiller &le; 0.5<br/>gini = 0.464<br/>samples = 432<br/>value = [351.482, 202.282]<br/>class = False>, fillcolor="#f4caab"] ;
1 [label=<Smokes &le; 0.5<br/>gini = 0.049<br/>samples = 401<br/>value = [338.759, 8.795]<br/>class = False>, fillcolor="#e6843e"] ;
0 -> 1 [labeldistance=2.5, labelangle=45, headlabel="True"] ;
2 [label=<gini = 0.056<br/>samples = 348<br/>value = [294.227, 8.795]<br/>class = False>, fillcolor="#e6853f"] ;
1 -> 2 ;
3 [label=<gini = 0.0<br/>samples = 53<br/>value = [44.532, 0.0]<br/>class = False>, fillcolor="#e58139"] ;
1 -> 3 ;
4 [label=<Hormonal Contraceptives (years) &le; 0.567<br/>gini = 0.116<br/>samples = 31<br/>value = [12.723, 193.487]<br/>class = True>, fillcolor="#46a3e7"] ;
0 -> 4 [labeldistance=2.5, labelangle=-45, headlabel="False"] ;
5 [label=<gini = 0.112<br/>samples = 30<br/>value = [12.193, 193.487]<br/>class = True>, fillcolor="#45a3e7"] ;
4 -> 5 ;
6 [label=<gini = -0.0<br/>samples = 1<br/>value = [0.53, 0.0]<br/>class = False>, fillcolor="#e58139"] ;
4 -> 6 ;
}